digraph Tree {
node [shape=box, fontname="helvetica"] ;
edge [fontname="helvetica"] ;
0 [label="X[110] <= 0.5\ngini = 0.976\nsamples = 3690\nvalue = [87, 87, 85, 87, 95, 91, 90, 85, 85, 89, 91, 89\n86, 95, 84, 91, 88, 92, 95, 88, 93, 93, 91, 89\n89, 92, 88, 89, 98, 90, 98, 81, 89, 91, 92, 91\n91, 92, 89, 89, 95]"] ;
1 [label="X[108] <= 0.5\ngini = 0.975\nsamples = 3597\nvalue = [87, 87, 85, 87, 95, 91, 90, 85, 85, 89, 91, 89\n86, 95, 84, 91, 88, 92, 95, 88, 93, 93, 91, 89\n89, 92, 88, 89, 98, 90, 5, 81, 89, 91, 92, 91\n91, 92, 89, 89, 95]"] ;
0 -> 1 [labeldistance=2.5, labelangle=45, headlabel="True"] ;
2 [label="X[77] <= 0.5\ngini = 0.974\nsamples = 3505\nvalue = [87, 87, 85, 87, 95, 91, 90, 85, 85, 89, 91, 89\n86, 95, 84, 91, 88, 92, 95, 88, 93, 93, 91, 89\n89, 92, 88, 89, 98, 90, 5, 81, 89, 91, 0, 91\n91, 92, 89, 89, 95]"] ;
1 -> 2 ;
3 [label="X[54] <= 0.5\ngini = 0.974\nsamples = 3413\nvalue = [87, 87, 85, 87, 95, 91, 90, 85, 85, 89, 91, 89\n86, 95, 84, 91, 88, 92, 95, 88, 93, 93, 91, 89\n89, 0, 88, 89, 98, 90, 5, 81, 89, 91, 0, 91\n91, 92, 89, 89, 95]"] ;
2 -> 3 ;
4 [label="X[114] <= 0.5\ngini = 0.973\nsamples = 3322\nvalue = [87, 87, 85, 87, 95, 91, 90, 85, 85, 89, 0, 89\n86, 95, 84, 91, 88, 92, 95, 88, 93, 93, 91, 89\n89, 0, 88, 89, 98, 90, 5, 81, 89, 91, 0, 91\n91, 92, 89, 89, 95]"] ;
3 -> 4 ;
5 [label="X[118] <= 0.5\ngini = 0.972\nsamples = 3231\nvalue = [87, 87, 85, 87, 95, 91, 90, 85, 85, 89, 0, 89\n86, 95, 84, 91, 88, 92, 95, 88, 93, 93, 0, 89\n89, 0, 88, 89, 98, 90, 5, 81, 89, 91, 0, 91\n91, 92, 89, 89, 95]"] ;
4 -> 5 ;
6 [label="X[61] <= 0.5\ngini = 0.971\nsamples = 3140\nvalue = [87, 87, 85, 87, 95, 91, 90, 85, 85, 89, 0, 89\n86, 95, 84, 91, 88, 92, 95, 88, 93, 93, 0, 89\n89, 0, 88, 89, 98, 90, 5, 81, 89, 91, 0, 91, 0\n92, 89, 89, 95]"] ;
5 -> 6 ;
7 [label="X[97] <= 0.5\ngini = 0.971\nsamples = 3049\nvalue = [87, 87, 85, 87, 95, 91, 90, 85, 85, 89, 0, 89\n86, 4, 84, 91, 88, 92, 95, 88, 93, 93, 0, 89\n89, 0, 88, 89, 98, 90, 5, 81, 89, 91, 0, 91, 0\n92, 89, 89, 95]"] ;
6 -> 7 ;
8 [label="X[126] <= 0.5\ngini = 0.968\nsamples = 2780\nvalue = [87, 87, 85, 87, 95, 91, 90, 85, 85, 89, 0, 5\n86, 4, 84, 91, 88, 92, 95, 88, 93, 93, 0, 89\n89, 0, 88, 89, 98, 0, 5, 81, 89, 91, 0, 91, 0\n92, 89, 89, 0]"] ;
7 -> 8 ;
9 [label="X[101] <= 0.5\ngini = 0.967\nsamples = 2691\nvalue = [87, 87, 85, 87, 95, 91, 90, 85, 85, 89, 0, 5\n86, 4, 84, 91, 88, 92, 95, 88, 93, 93, 0, 89\n89, 0, 88, 89, 98, 0, 5, 81, 89, 91, 0, 2, 0\n92, 89, 89, 0]"] ;
8 -> 9 ;
10 [label="X[19] <= 0.5\ngini = 0.965\nsamples = 2514\nvalue = [87, 87, 85, 87, 95, 91, 90, 85, 85, 89, 0, 5\n86, 4, 84, 91, 88, 92, 95, 88, 93, 93, 0, 89\n0, 0, 0, 89, 98, 0, 5, 81, 89, 91, 0, 2, 0\n92, 89, 89, 0]"] ;
9 -> 10 ;
11 [label="X[112] <= 0.5\ngini = 0.962\nsamples = 2337\nvalue = [87, 87, 85, 87, 95, 91, 90, 85, 85, 89, 0, 5\n3, 4, 84, 91, 88, 92, 95, 88, 93, 93, 0, 89, 0\n0, 0, 89, 4, 0, 5, 81, 89, 91, 0, 2, 0, 92\n89, 89, 0]"] ;
10 -> 11 ;
12 [label="X[40] <= 0.5\ngini = 0.961\nsamples = 2249\nvalue = [87, 87, 85, 87, 95, 91, 90, 85, 85, 89, 0, 5\n3, 4, 84, 91, 88, 92, 95, 0, 93, 93, 0, 89, 0\n0, 0, 89, 4, 0, 5, 81, 89, 91, 0, 2, 0, 92\n89, 89, 0]"] ;
11 -> 12 ;
13 [label="X[98] <= 0.5\ngini = 0.958\nsamples = 2072\nvalue = [87, 87, 85, 87, 95, 91, 90, 85, 85, 89, 0, 5\n3, 4, 84, 91, 88, 4, 95, 0, 93, 93, 0, 89, 0\n0, 0, 89, 4, 0, 5, 81, 89, 91, 0, 2, 0, 3\n89, 89, 0]"] ;
12 -> 13 ;
14 [label="X[80] <= 0.5\ngini = 0.956\nsamples = 1985\nvalue = [87, 87, 85, 87, 95, 91, 90, 85, 85, 89, 0, 5\n3, 4, 84, 91, 88, 4, 95, 0, 93, 93, 0, 89, 0\n0, 0, 89, 4, 0, 5, 81, 2, 91, 0, 2, 0, 3, 89\n89, 0]"] ;
13 -> 14 ;
15 [label="X[91] <= 0.5\ngini = 0.954\nsamples = 1898\nvalue = [87, 87, 85, 87, 95, 4, 90, 85, 85, 89, 0, 5, 3\n4, 84, 91, 88, 4, 95, 0, 93, 93, 0, 89, 0, 0\n0, 89, 4, 0, 5, 81, 2, 91, 0, 2, 0, 3, 89\n89, 0]"] ;
14 -> 15 ;
16 [label="X[92] <= 0.5\ngini = 0.952\nsamples = 1812\nvalue = [87, 87, 85, 87, 95, 4, 90, 85, 85, 89, 0, 5, 3\n4, 84, 91, 88, 4, 95, 0, 93, 93, 0, 89, 0, 0\n0, 89, 4, 0, 5, 81, 2, 91, 0, 2, 0, 3, 3, 89\n0]"] ;
15 -> 16 ;
17 [label="X[106] <= 0.5\ngini = 0.95\nsamples = 1726\nvalue = [87, 87, 85, 87, 95, 4, 90, 85, 85, 89, 0, 5, 3\n4, 84, 91, 88, 4, 95, 0, 93, 93, 0, 89, 0, 0\n0, 89, 4, 0, 5, 81, 2, 5, 0, 2, 0, 3, 3, 89\n0]"] ;
16 -> 17 ;
18 [label="X[103] <= 0.5\ngini = 0.945\nsamples = 1553\nvalue = [87, 87, 85, 87, 95, 4, 4, 85, 85, 89, 0, 5, 3\n4, 84, 91, 88, 4, 95, 0, 6, 93, 0, 89, 0, 0\n0, 89, 4, 0, 5, 81, 2, 5, 0, 2, 0, 3, 3, 89\n0]"] ;
17 -> 18 ;
19 [label="X[28] <= 0.5\ngini = 0.943\nsamples = 1467\nvalue = [87, 87, 85, 87, 9, 4, 4, 85, 85, 89, 0, 5, 3\n4, 84, 91, 88, 4, 95, 0, 6, 93, 0, 89, 0, 0\n0, 89, 4, 0, 5, 81, 2, 5, 0, 2, 0, 3, 3, 89\n0]"] ;
18 -> 19 ;
20 [label="X[131] <= 0.5\ngini = 0.94\nsamples = 1381\nvalue = [87, 87, 85, 87, 9, 4, 4, 85, 85, 89, 0, 5, 3\n4, 84, 91, 88, 4, 9, 0, 6, 93, 0, 89, 0, 0\n0, 89, 4, 0, 5, 81, 2, 5, 0, 2, 0, 3, 3, 89\n0]"] ;
19 -> 20 ;
21 [label="X[116] <= 0.5\ngini = 0.936\nsamples = 1296\nvalue = [87, 87, 85, 87, 9, 4, 4, 85, 85, 89, 0, 5, 3\n4, 84, 91, 88, 4, 9, 0, 6, 93, 0, 89, 0, 0\n0, 4, 4, 0, 5, 81, 2, 5, 0, 2, 0, 3, 3, 89\n0]"] ;
20 -> 21 ;
22 [label="X[33] <= 0.5\ngini = 0.932\nsamples = 1212\nvalue = [87, 87, 85, 3, 9, 4, 4, 85, 85, 89, 0, 5, 3\n4, 84, 91, 88, 4, 9, 0, 6, 93, 0, 89, 0, 0\n0, 4, 4, 0, 5, 81, 2, 5, 0, 2, 0, 3, 3, 89\n0]"] ;
21 -> 22 ;
23 [label="X[66] <= 0.5\ngini = 0.928\nsamples = 1120\nvalue = [87, 87, 85, 3, 9, 4, 4, 85, 85, 89, 0, 5, 3\n4, 84, 91, 88, 4, 9, 0, 6, 5, 0, 89, 0, 0, 0\n4, 0, 0, 5, 81, 2, 5, 0, 2, 0, 3, 3, 89, 0]"] ;
22 -> 23 ;
24 [label="X[86] <= 0.5\ngini = 0.923\nsamples = 1036\nvalue = [87, 87, 85, 3, 9, 4, 4, 85, 85, 89, 0, 5, 3\n4, 84, 91, 88, 4, 9, 0, 6, 5, 0, 89, 0, 0, 0\n4, 0, 0, 5, 81, 2, 5, 0, 2, 0, 3, 3, 5, 0]"] ;
23 -> 24 ;
25 [label="X[109] <= 0.5\ngini = 0.917\nsamples = 953\nvalue = [4, 87, 85, 3, 9, 4, 4, 85, 85, 89, 0, 5, 3\n4, 84, 91, 88, 4, 9, 0, 6, 5, 0, 89, 0, 0, 0\n4, 0, 0, 5, 81, 2, 5, 0, 2, 0, 3, 3, 5, 0]"] ;
24 -> 25 ;
26 [label="X[47] <= 0.5\ngini = 0.911\nsamples = 870\nvalue = [4, 87, 85, 3, 9, 4, 4, 85, 85, 89, 0, 5, 3\n4, 84, 91, 88, 4, 9, 0, 6, 5, 0, 6, 0, 0, 0\n4, 0, 0, 5, 81, 2, 5, 0, 2, 0, 3, 3, 5, 0]"] ;
25 -> 26 ;
27 [label="X[24] <= 0.5\ngini = 0.903\nsamples = 788\nvalue = [4, 87, 85, 3, 9, 4, 4, 85, 3, 89, 0, 5, 3, 4\n84, 91, 88, 4, 9, 0, 6, 5, 0, 6, 0, 0, 0, 4\n0, 0, 5, 81, 2, 5, 0, 2, 0, 3, 3, 5, 0]"] ;
26 -> 27 ;
28 [label="X[2] <= 0.5\ngini = 0.893\nsamples = 700\nvalue = [4, 87, 85, 3, 9, 4, 0, 85, 3, 89, 0, 5, 3, 4\n84, 91, 4, 4, 9, 0, 6, 5, 0, 6, 0, 0, 0, 4\n0, 0, 5, 81, 2, 5, 0, 2, 0, 3, 3, 5, 0]"] ;
27 -> 28 ;
29 [label="X[78] <= 0.5\ngini = 0.885\nsamples = 619\nvalue = [4, 87, 85, 3, 9, 4, 0, 85, 3, 89, 0, 5, 3, 4\n84, 10, 4, 4, 9, 0, 6, 5, 0, 6, 0, 0, 0, 4\n0, 0, 5, 81, 2, 5, 0, 2, 0, 3, 3, 5, 0]"] ;
28 -> 29 ;
30 [label="X[63] <= 0.5\ngini = 0.871\nsamples = 541\nvalue = [4, 87, 85, 3, 9, 4, 0, 85, 3, 89, 0, 5, 3, 4\n84, 10, 4, 4, 9, 0, 6, 5, 0, 6, 0, 0, 0, 4\n0, 0, 5, 3, 2, 5, 0, 2, 0, 3, 3, 5, 0]"] ;
29 -> 30 ;
31 [label="X[22] <= 0.5\ngini = 0.854\nsamples = 457\nvalue = [4, 87, 85, 3, 9, 4, 0, 4, 3, 89, 0, 5, 3, 4\n84, 10, 4, 4, 9, 0, 6, 5, 0, 6, 0, 0, 0, 4\n0, 0, 5, 0, 2, 5, 0, 2, 0, 3, 3, 5, 0]"] ;
30 -> 31 ;
32 [label="X[13] <= 0.5\ngini = 0.84\nsamples = 378\nvalue = [4, 8, 85, 3, 9, 4, 0, 4, 3, 89, 0, 5, 3, 4\n84, 10, 4, 4, 9, 0, 6, 5, 0, 6, 0, 0, 0, 4\n0, 0, 5, 0, 2, 5, 0, 2, 0, 3, 3, 5, 0]"] ;
31 -> 32 ;
33 [label="X[122] <= 0.5\ngini = 0.825\nsamples = 301\nvalue = [4, 8, 85, 3, 9, 4, 0, 4, 3, 89, 0, 5, 3, 4\n7, 10, 4, 4, 9, 0, 6, 5, 0, 6, 0, 0, 0, 4\n0, 0, 5, 0, 2, 5, 0, 2, 0, 3, 3, 5, 0]"] ;
32 -> 33 ;
34 [label="X[32] <= 0.5\ngini = 0.826\nsamples = 224\nvalue = [4, 8, 8, 3, 9, 4, 0, 4, 3, 89, 0, 5, 3, 4\n7, 10, 4, 4, 9, 0, 6, 5, 0, 6, 0, 0, 0, 4\n0, 0, 5, 0, 2, 5, 0, 2, 0, 3, 3, 5, 0]"] ;
33 -> 34 ;
35 [label="X[102] <= 0.5\ngini = 0.951\nsamples = 123\nvalue = [4, 8, 8, 0, 9, 4, 0, 4, 3, 2, 0, 5, 3, 4\n7, 10, 4, 4, 9, 0, 0, 0, 0, 6, 0, 0, 0, 4\n0, 0, 5, 0, 2, 5, 0, 2, 0, 3, 3, 5, 0]"] ;
34 -> 35 ;
36 [label="X[4] <= 0.5\ngini = 0.95\nsamples = 113\nvalue = [4, 8, 8, 0, 9, 4, 0, 4, 3, 2, 0, 5, 3, 4\n7, 0, 4, 4, 9, 0, 0, 0, 0, 6, 0, 0, 0, 4\n0, 0, 5, 0, 2, 5, 0, 2, 0, 3, 3, 5, 0]"] ;
35 -> 36 ;
37 [label="X[27] <= 0.5\ngini = 0.949\nsamples = 104\nvalue = [4, 8, 8, 0, 0, 4, 0, 4, 3, 2, 0, 5, 3, 4\n7, 0, 4, 4, 9, 0, 0, 0, 0, 6, 0, 0, 0, 4\n0, 0, 5, 0, 2, 5, 0, 2, 0, 3, 3, 5, 0]"] ;
36 -> 37 ;
38 [label="X[75] <= 0.5\ngini = 0.948\nsamples = 95\nvalue = [4, 8, 8, 0, 0, 4, 0, 4, 3, 2, 0, 5, 3, 4\n7, 0, 4, 4, 0, 0, 0, 0, 0, 6, 0, 0, 0, 4\n0, 0, 5, 0, 2, 5, 0, 2, 0, 3, 3, 5, 0]"] ;
37 -> 38 ;
39 [label="X[123] <= 0.5\ngini = 0.946\nsamples = 87\nvalue = [4, 0, 8, 0, 0, 4, 0, 4, 3, 2, 0, 5, 3, 4\n7, 0, 4, 4, 0, 0, 0, 0, 0, 6, 0, 0, 0, 4\n0, 0, 5, 0, 2, 5, 0, 2, 0, 3, 3, 5, 0]"] ;
38 -> 39 ;
40 [label="X[7] <= 0.5\ngini = 0.945\nsamples = 79\nvalue = [4, 0, 0, 0, 0, 4, 0, 4, 3, 2, 0, 5, 3, 4\n7, 0, 4, 4, 0, 0, 0, 0, 0, 6, 0, 0, 0, 4\n0, 0, 5, 0, 2, 5, 0, 2, 0, 3, 3, 5, 0]"] ;
39 -> 40 ;
41 [label="X[56] <= 0.5\ngini = 0.939\nsamples = 68\nvalue = [4, 0, 0, 0, 0, 4, 0, 4, 3, 2, 0, 5, 3, 4\n0, 0, 0, 4, 0, 0, 0, 0, 0, 6, 0, 0, 0, 4\n0, 0, 5, 0, 2, 5, 0, 2, 0, 3, 3, 5, 0]"] ;
40 -> 41 ;
42 [label="X[36] <= 0.5\ngini = 0.937\nsamples = 62\nvalue = [4, 0, 0, 0, 0, 4, 0, 4, 3, 2, 0, 5, 3, 4\n0, 0, 0, 4, 0, 0, 0, 0, 0, 0, 0, 0, 0, 4\n0, 0, 5, 0, 2, 5, 0, 2, 0, 3, 3, 5, 0]"] ;
41 -> 42 ;
43 [label="X[68] <= 0.5\ngini = 0.933\nsamples = 57\nvalue = [4, 0, 0, 0, 0, 4, 0, 4, 3, 2, 0, 0, 3, 4\n0, 0, 0, 4, 0, 0, 0, 0, 0, 0, 0, 0, 0, 4\n0, 0, 5, 0, 2, 5, 0, 2, 0, 3, 3, 5, 0]"] ;
42 -> 43 ;
44 [label="X[95] <= 0.5\ngini = 0.928\nsamples = 52\nvalue = [4, 0, 0, 0, 0, 4, 0, 4, 3, 2, 0, 0, 3, 4\n0, 0, 0, 4, 0, 0, 0, 0, 0, 0, 0, 0, 0, 4\n0, 0, 5, 0, 2, 5, 0, 2, 0, 3, 3, 0, 0]"] ;
43 -> 44 ;
45 [label="X[93] <= 0.5\ngini = 0.923\nsamples = 47\nvalue = [4, 0, 0, 0, 0, 4, 0, 4, 3, 2, 0, 0, 3, 4\n0, 0, 0, 4, 0, 0, 0, 0, 0, 0, 0, 0, 0, 4\n0, 0, 0, 0, 2, 5, 0, 2, 0, 3, 3, 0, 0]"] ;
44 -> 45 ;
46 [label="X[29] <= 0.5\ngini = 0.918\nsamples = 42\nvalue = [4, 0, 0, 0, 0, 4, 0, 4, 3, 2, 0, 0, 3, 4\n0, 0, 0, 4, 0, 0, 0, 0, 0, 0, 0, 0, 0, 4\n0, 0, 0, 0, 2, 0, 0, 2, 0, 3, 3, 0, 0]"] ;
45 -> 46 ;
47 [label="X[130] <= 0.5\ngini = 0.911\nsamples = 38\nvalue = [4, 0, 0, 0, 0, 4, 0, 4, 3, 2, 0, 0, 3, 4\n0, 0, 0, 0, 0, 0, 0, 0, 0, 0, 0, 0, 0, 4\n0, 0, 0, 0, 2, 0, 0, 2, 0, 3, 3, 0, 0]"] ;
46 -> 47 ;
48 [label="X[59] <= 0.5\ngini = 0.903\nsamples = 34\nvalue = [4, 0, 0, 0, 0, 4, 0, 4, 3, 2, 0, 0, 3, 4\n0, 0, 0, 0, 0, 0, 0, 0, 0, 0, 0, 0, 0, 0\n0, 0, 0, 0, 2, 0, 0, 2, 0, 3, 3, 0, 0]"] ;
47 -> 48 ;
49 [label="X[82] <= 0.5\ngini = 0.893\nsamples = 30\nvalue = [4, 0, 0, 0, 0, 4, 0, 4, 3, 2, 0, 0, 3, 0\n0, 0, 0, 0, 0, 0, 0, 0, 0, 0, 0, 0, 0, 0\n0, 0, 0, 0, 2, 0, 0, 2, 0, 3, 3, 0, 0]"] ;
48 -> 49 ;
50 [label="gini = 0.882\nsamples = 26\nvalue = [4, 0, 0, 0, 0, 0, 0, 4, 3, 2, 0, 0, 3, 0\n0, 0, 0, 0, 0, 0, 0, 0, 0, 0, 0, 0, 0, 0\n0, 0, 0, 0, 2, 0, 0, 2, 0, 3, 3, 0, 0]"] ;
49 -> 50 ;
51 [label="gini = 0.0\nsamples = 4\nvalue = [0, 0, 0, 0, 0, 4, 0, 0, 0, 0, 0, 0, 0, 0\n0, 0, 0, 0, 0, 0, 0, 0, 0, 0, 0, 0, 0, 0\n0, 0, 0, 0, 0, 0, 0, 0, 0, 0, 0, 0, 0]"] ;
49 -> 51 ;
52 [label="gini = 0.0\nsamples = 4\nvalue = [0, 0, 0, 0, 0, 0, 0, 0, 0, 0, 0, 0, 0, 4\n0, 0, 0, 0, 0, 0, 0, 0, 0, 0, 0, 0, 0, 0\n0, 0, 0, 0, 0, 0, 0, 0, 0, 0, 0, 0, 0]"] ;
48 -> 52 ;
53 [label="gini = 0.0\nsamples = 4\nvalue = [0, 0, 0, 0, 0, 0, 0, 0, 0, 0, 0, 0, 0, 0\n0, 0, 0, 0, 0, 0, 0, 0, 0, 0, 0, 0, 0, 4\n0, 0, 0, 0, 0, 0, 0, 0, 0, 0, 0, 0, 0]"] ;
47 -> 53 ;
54 [label="gini = 0.0\nsamples = 4\nvalue = [0, 0, 0, 0, 0, 0, 0, 0, 0, 0, 0, 0, 0, 0\n0, 0, 0, 4, 0, 0, 0, 0, 0, 0, 0, 0, 0, 0\n0, 0, 0, 0, 0, 0, 0, 0, 0, 0, 0, 0, 0]"] ;
46 -> 54 ;
55 [label="gini = 0.0\nsamples = 5\nvalue = [0, 0, 0, 0, 0, 0, 0, 0, 0, 0, 0, 0, 0, 0\n0, 0, 0, 0, 0, 0, 0, 0, 0, 0, 0, 0, 0, 0\n0, 0, 0, 0, 0, 5, 0, 0, 0, 0, 0, 0, 0]"] ;
45 -> 55 ;
56 [label="gini = 0.0\nsamples = 5\nvalue = [0, 0, 0, 0, 0, 0, 0, 0, 0, 0, 0, 0, 0, 0\n0, 0, 0, 0, 0, 0, 0, 0, 0, 0, 0, 0, 0, 0\n0, 0, 5, 0, 0, 0, 0, 0, 0, 0, 0, 0, 0]"] ;
44 -> 56 ;
57 [label="gini = 0.0\nsamples = 5\nvalue = [0, 0, 0, 0, 0, 0, 0, 0, 0, 0, 0, 0, 0, 0\n0, 0, 0, 0, 0, 0, 0, 0, 0, 0, 0, 0, 0, 0\n0, 0, 0, 0, 0, 0, 0, 0, 0, 0, 0, 5, 0]"] ;
43 -> 57 ;
58 [label="gini = 0.0\nsamples = 5\nvalue = [0, 0, 0, 0, 0, 0, 0, 0, 0, 0, 0, 5, 0, 0\n0, 0, 0, 0, 0, 0, 0, 0, 0, 0, 0, 0, 0, 0\n0, 0, 0, 0, 0, 0, 0, 0, 0, 0, 0, 0, 0]"] ;
42 -> 58 ;
59 [label="gini = 0.0\nsamples = 6\nvalue = [0, 0, 0, 0, 0, 0, 0, 0, 0, 0, 0, 0, 0, 0\n0, 0, 0, 0, 0, 0, 0, 0, 0, 6, 0, 0, 0, 0\n0, 0, 0, 0, 0, 0, 0, 0, 0, 0, 0, 0, 0]"] ;
41 -> 59 ;
60 [label="X[9] <= 0.5\ngini = 0.463\nsamples = 11\nvalue = [0, 0, 0, 0, 0, 0, 0, 0, 0, 0, 0, 0, 0, 0\n7, 0, 4, 0, 0, 0, 0, 0, 0, 0, 0, 0, 0, 0\n0, 0, 0, 0, 0, 0, 0, 0, 0, 0, 0, 0, 0]"] ;
40 -> 60 ;
61 [label="gini = 0.0\nsamples = 7\nvalue = [0, 0, 0, 0, 0, 0, 0, 0, 0, 0, 0, 0, 0, 0\n7, 0, 0, 0, 0, 0, 0, 0, 0, 0, 0, 0, 0, 0\n0, 0, 0, 0, 0, 0, 0, 0, 0, 0, 0, 0, 0]"] ;
60 -> 61 ;
62 [label="gini = 0.0\nsamples = 4\nvalue = [0, 0, 0, 0, 0, 0, 0, 0, 0, 0, 0, 0, 0, 0\n0, 0, 4, 0, 0, 0, 0, 0, 0, 0, 0, 0, 0, 0\n0, 0, 0, 0, 0, 0, 0, 0, 0, 0, 0, 0, 0]"] ;
60 -> 62 ;
63 [label="gini = 0.0\nsamples = 8\nvalue = [0, 0, 8, 0, 0, 0, 0, 0, 0, 0, 0, 0, 0, 0\n0, 0, 0, 0, 0, 0, 0, 0, 0, 0, 0, 0, 0, 0\n0, 0, 0, 0, 0, 0, 0, 0, 0, 0, 0, 0, 0]"] ;
39 -> 63 ;
64 [label="gini = 0.0\nsamples = 8\nvalue = [0, 8, 0, 0, 0, 0, 0, 0, 0, 0, 0, 0, 0, 0\n0, 0, 0, 0, 0, 0, 0, 0, 0, 0, 0, 0, 0, 0\n0, 0, 0, 0, 0, 0, 0, 0, 0, 0, 0, 0, 0]"] ;
38 -> 64 ;
65 [label="gini = 0.0\nsamples = 9\nvalue = [0, 0, 0, 0, 0, 0, 0, 0, 0, 0, 0, 0, 0, 0\n0, 0, 0, 0, 9, 0, 0, 0, 0, 0, 0, 0, 0, 0\n0, 0, 0, 0, 0, 0, 0, 0, 0, 0, 0, 0, 0]"] ;
37 -> 65 ;
66 [label="gini = 0.0\nsamples = 9\nvalue = [0, 0, 0, 0, 9, 0, 0, 0, 0, 0, 0, 0, 0, 0\n0, 0, 0, 0, 0, 0, 0, 0, 0, 0, 0, 0, 0, 0\n0, 0, 0, 0, 0, 0, 0, 0, 0, 0, 0, 0, 0]"] ;
36 -> 66 ;
67 [label="gini = 0.0\nsamples = 10\nvalue = [0, 0, 0, 0, 0, 0, 0, 0, 0, 0, 0, 0, 0, 0\n0, 10, 0, 0, 0, 0, 0, 0, 0, 0, 0, 0, 0, 0\n0, 0, 0, 0, 0, 0, 0, 0, 0, 0, 0, 0, 0]"] ;
35 -> 67 ;
68 [label="X[14] <= 0.5\ngini = 0.251\nsamples = 101\nvalue = [0, 0, 0, 3, 0, 0, 0, 0, 0, 87, 0, 0, 0, 0\n0, 0, 0, 0, 0, 0, 6, 5, 0, 0, 0, 0, 0, 0\n0, 0, 0, 0, 0, 0, 0, 0, 0, 0, 0, 0, 0]"] ;
34 -> 68 ;
69 [label="X[115] <= 0.5\ngini = 0.064\nsamples = 90\nvalue = [0, 0, 0, 3, 0, 0, 0, 0, 0, 87, 0, 0, 0, 0\n0, 0, 0, 0, 0, 0, 0, 0, 0, 0, 0, 0, 0, 0\n0, 0, 0, 0, 0, 0, 0, 0, 0, 0, 0, 0, 0]"] ;
68 -> 69 ;
70 [label="gini = 0.0\nsamples = 87\nvalue = [0, 0, 0, 0, 0, 0, 0, 0, 0, 87, 0, 0, 0, 0\n0, 0, 0, 0, 0, 0, 0, 0, 0, 0, 0, 0, 0, 0\n0, 0, 0, 0, 0, 0, 0, 0, 0, 0, 0, 0, 0]"] ;
69 -> 70 ;
71 [label="gini = 0.0\nsamples = 3\nvalue = [0, 0, 0, 3, 0, 0, 0, 0, 0, 0, 0, 0, 0, 0\n0, 0, 0, 0, 0, 0, 0, 0, 0, 0, 0, 0, 0, 0\n0, 0, 0, 0, 0, 0, 0, 0, 0, 0, 0, 0, 0]"] ;
69 -> 71 ;
72 [label="X[6] <= 0.5\ngini = 0.496\nsamples = 11\nvalue = [0, 0, 0, 0, 0, 0, 0, 0, 0, 0, 0, 0, 0, 0\n0, 0, 0, 0, 0, 0, 6, 5, 0, 0, 0, 0, 0, 0\n0, 0, 0, 0, 0, 0, 0, 0, 0, 0, 0, 0, 0]"] ;
68 -> 72 ;
73 [label="gini = 0.0\nsamples = 6\nvalue = [0, 0, 0, 0, 0, 0, 0, 0, 0, 0, 0, 0, 0, 0\n0, 0, 0, 0, 0, 0, 6, 0, 0, 0, 0, 0, 0, 0\n0, 0, 0, 0, 0, 0, 0, 0, 0, 0, 0, 0, 0]"] ;
72 -> 73 ;
74 [label="gini = 0.0\nsamples = 5\nvalue = [0, 0, 0, 0, 0, 0, 0, 0, 0, 0, 0, 0, 0, 0\n0, 0, 0, 0, 0, 0, 0, 5, 0, 0, 0, 0, 0, 0\n0, 0, 0, 0, 0, 0, 0, 0, 0, 0, 0, 0, 0]"] ;
72 -> 74 ;
75 [label="gini = 0.0\nsamples = 77\nvalue = [0, 0, 77, 0, 0, 0, 0, 0, 0, 0, 0, 0, 0, 0\n0, 0, 0, 0, 0, 0, 0, 0, 0, 0, 0, 0, 0, 0\n0, 0, 0, 0, 0, 0, 0, 0, 0, 0, 0, 0, 0]"] ;
33 -> 75 ;
76 [label="gini = 0.0\nsamples = 77\nvalue = [0, 0, 0, 0, 0, 0, 0, 0, 0, 0, 0, 0, 0, 0\n77, 0, 0, 0, 0, 0, 0, 0, 0, 0, 0, 0, 0, 0\n0, 0, 0, 0, 0, 0, 0, 0, 0, 0, 0, 0, 0]"] ;
32 -> 76 ;
77 [label="gini = 0.0\nsamples = 79\nvalue = [0, 79, 0, 0, 0, 0, 0, 0, 0, 0, 0, 0, 0, 0\n0, 0, 0, 0, 0, 0, 0, 0, 0, 0, 0, 0, 0, 0\n0, 0, 0, 0, 0, 0, 0, 0, 0, 0, 0, 0, 0]"] ;
31 -> 77 ;
78 [label="X[121] <= 0.5\ngini = 0.069\nsamples = 84\nvalue = [0, 0, 0, 0, 0, 0, 0, 81, 0, 0, 0, 0, 0, 0\n0, 0, 0, 0, 0, 0, 0, 0, 0, 0, 0, 0, 0, 0\n0, 0, 0, 3, 0, 0, 0, 0, 0, 0, 0, 0, 0]"] ;
30 -> 78 ;
79 [label="gini = 0.0\nsamples = 81\nvalue = [0, 0, 0, 0, 0, 0, 0, 81, 0, 0, 0, 0, 0, 0\n0, 0, 0, 0, 0, 0, 0, 0, 0, 0, 0, 0, 0, 0\n0, 0, 0, 0, 0, 0, 0, 0, 0, 0, 0, 0, 0]"] ;
78 -> 79 ;
80 [label="gini = 0.0\nsamples = 3\nvalue = [0, 0, 0, 0, 0, 0, 0, 0, 0, 0, 0, 0, 0, 0\n0, 0, 0, 0, 0, 0, 0, 0, 0, 0, 0, 0, 0, 0\n0, 0, 0, 3, 0, 0, 0, 0, 0, 0, 0, 0, 0]"] ;
78 -> 80 ;
81 [label="gini = 0.0\nsamples = 78\nvalue = [0, 0, 0, 0, 0, 0, 0, 0, 0, 0, 0, 0, 0, 0\n0, 0, 0, 0, 0, 0, 0, 0, 0, 0, 0, 0, 0, 0\n0, 0, 0, 78, 0, 0, 0, 0, 0, 0, 0, 0, 0]"] ;
29 -> 81 ;
82 [label="gini = 0.0\nsamples = 81\nvalue = [0, 0, 0, 0, 0, 0, 0, 0, 0, 0, 0, 0, 0, 0\n0, 81, 0, 0, 0, 0, 0, 0, 0, 0, 0, 0, 0, 0\n0, 0, 0, 0, 0, 0, 0, 0, 0, 0, 0, 0, 0]"] ;
28 -> 82 ;
83 [label="X[27] <= 0.5\ngini = 0.087\nsamples = 88\nvalue = [0, 0, 0, 0, 0, 0, 4, 0, 0, 0, 0, 0, 0, 0\n0, 0, 84, 0, 0, 0, 0, 0, 0, 0, 0, 0, 0, 0\n0, 0, 0, 0, 0, 0, 0, 0, 0, 0, 0, 0, 0]"] ;
27 -> 83 ;
84 [label="gini = 0.0\nsamples = 84\nvalue = [0, 0, 0, 0, 0, 0, 0, 0, 0, 0, 0, 0, 0, 0\n0, 0, 84, 0, 0, 0, 0, 0, 0, 0, 0, 0, 0, 0\n0, 0, 0, 0, 0, 0, 0, 0, 0, 0, 0, 0, 0]"] ;
83 -> 84 ;
85 [label="gini = 0.0\nsamples = 4\nvalue = [0, 0, 0, 0, 0, 0, 4, 0, 0, 0, 0, 0, 0, 0\n0, 0, 0, 0, 0, 0, 0, 0, 0, 0, 0, 0, 0, 0\n0, 0, 0, 0, 0, 0, 0, 0, 0, 0, 0, 0, 0]"] ;
83 -> 85 ;
86 [label="gini = 0.0\nsamples = 82\nvalue = [0, 0, 0, 0, 0, 0, 0, 0, 82, 0, 0, 0, 0, 0\n0, 0, 0, 0, 0, 0, 0, 0, 0, 0, 0, 0, 0, 0\n0, 0, 0, 0, 0, 0, 0, 0, 0, 0, 0, 0, 0]"] ;
26 -> 86 ;
87 [label="gini = 0.0\nsamples = 83\nvalue = [0, 0, 0, 0, 0, 0, 0, 0, 0, 0, 0, 0, 0, 0\n0, 0, 0, 0, 0, 0, 0, 0, 0, 83, 0, 0, 0, 0\n0, 0, 0, 0, 0, 0, 0, 0, 0, 0, 0, 0, 0]"] ;
25 -> 87 ;
88 [label="gini = 0.0\nsamples = 83\nvalue = [83, 0, 0, 0, 0, 0, 0, 0, 0, 0, 0, 0, 0, 0\n0, 0, 0, 0, 0, 0, 0, 0, 0, 0, 0, 0, 0, 0\n0, 0, 0, 0, 0, 0, 0, 0, 0, 0, 0, 0, 0]"] ;
24 -> 88 ;
89 [label="gini = 0.0\nsamples = 84\nvalue = [0, 0, 0, 0, 0, 0, 0, 0, 0, 0, 0, 0, 0, 0\n0, 0, 0, 0, 0, 0, 0, 0, 0, 0, 0, 0, 0, 0\n0, 0, 0, 0, 0, 0, 0, 0, 0, 0, 0, 84, 0]"] ;
23 -> 89 ;
90 [label="X[0] <= 0.5\ngini = 0.083\nsamples = 92\nvalue = [0, 0, 0, 0, 0, 0, 0, 0, 0, 0, 0, 0, 0, 0\n0, 0, 0, 0, 0, 0, 0, 88, 0, 0, 0, 0, 0, 0\n4, 0, 0, 0, 0, 0, 0, 0, 0, 0, 0, 0, 0]"] ;
22 -> 90 ;
91 [label="gini = 0.0\nsamples = 88\nvalue = [0, 0, 0, 0, 0, 0, 0, 0, 0, 0, 0, 0, 0, 0\n0, 0, 0, 0, 0, 0, 0, 88, 0, 0, 0, 0, 0, 0\n0, 0, 0, 0, 0, 0, 0, 0, 0, 0, 0, 0, 0]"] ;
90 -> 91 ;
92 [label="gini = 0.0\nsamples = 4\nvalue = [0, 0, 0, 0, 0, 0, 0, 0, 0, 0, 0, 0, 0, 0\n0, 0, 0, 0, 0, 0, 0, 0, 0, 0, 0, 0, 0, 0\n4, 0, 0, 0, 0, 0, 0, 0, 0, 0, 0, 0, 0]"] ;
90 -> 92 ;
93 [label="gini = 0.0\nsamples = 84\nvalue = [0, 0, 0, 84, 0, 0, 0, 0, 0, 0, 0, 0, 0, 0\n0, 0, 0, 0, 0, 0, 0, 0, 0, 0, 0, 0, 0, 0\n0, 0, 0, 0, 0, 0, 0, 0, 0, 0, 0, 0, 0]"] ;
21 -> 93 ;
94 [label="gini = 0.0\nsamples = 85\nvalue = [0, 0, 0, 0, 0, 0, 0, 0, 0, 0, 0, 0, 0, 0\n0, 0, 0, 0, 0, 0, 0, 0, 0, 0, 0, 0, 0, 85\n0, 0, 0, 0, 0, 0, 0, 0, 0, 0, 0, 0, 0]"] ;
20 -> 94 ;
95 [label="gini = 0.0\nsamples = 86\nvalue = [0, 0, 0, 0, 0, 0, 0, 0, 0, 0, 0, 0, 0, 0\n0, 0, 0, 0, 86, 0, 0, 0, 0, 0, 0, 0, 0, 0\n0, 0, 0, 0, 0, 0, 0, 0, 0, 0, 0, 0, 0]"] ;
19 -> 95 ;
96 [label="gini = 0.0\nsamples = 86\nvalue = [0, 0, 0, 0, 86, 0, 0, 0, 0, 0, 0, 0, 0, 0\n0, 0, 0, 0, 0, 0, 0, 0, 0, 0, 0, 0, 0, 0\n0, 0, 0, 0, 0, 0, 0, 0, 0, 0, 0, 0, 0]"] ;
18 -> 96 ;
97 [label="X[34] <= 0.5\ngini = 0.5\nsamples = 173\nvalue = [0, 0, 0, 0, 0, 0, 86, 0, 0, 0, 0, 0, 0, 0\n0, 0, 0, 0, 0, 0, 87, 0, 0, 0, 0, 0, 0, 0\n0, 0, 0, 0, 0, 0, 0, 0, 0, 0, 0, 0, 0]"] ;
17 -> 97 ;
98 [label="X[35] <= 0.5\ngini = 0.085\nsamples = 90\nvalue = [0, 0, 0, 0, 0, 0, 86, 0, 0, 0, 0, 0, 0, 0\n0, 0, 0, 0, 0, 0, 4, 0, 0, 0, 0, 0, 0, 0\n0, 0, 0, 0, 0, 0, 0, 0, 0, 0, 0, 0, 0]"] ;
97 -> 98 ;
99 [label="gini = 0.0\nsamples = 86\nvalue = [0, 0, 0, 0, 0, 0, 86, 0, 0, 0, 0, 0, 0, 0\n0, 0, 0, 0, 0, 0, 0, 0, 0, 0, 0, 0, 0, 0\n0, 0, 0, 0, 0, 0, 0, 0, 0, 0, 0, 0, 0]"] ;
98 -> 99 ;
100 [label="gini = 0.0\nsamples = 4\nvalue = [0, 0, 0, 0, 0, 0, 0, 0, 0, 0, 0, 0, 0, 0\n0, 0, 0, 0, 0, 0, 4, 0, 0, 0, 0, 0, 0, 0\n0, 0, 0, 0, 0, 0, 0, 0, 0, 0, 0, 0, 0]"] ;
98 -> 100 ;
101 [label="gini = 0.0\nsamples = 83\nvalue = [0, 0, 0, 0, 0, 0, 0, 0, 0, 0, 0, 0, 0, 0\n0, 0, 0, 0, 0, 0, 83, 0, 0, 0, 0, 0, 0, 0\n0, 0, 0, 0, 0, 0, 0, 0, 0, 0, 0, 0, 0]"] ;
97 -> 101 ;
102 [label="gini = 0.0\nsamples = 86\nvalue = [0, 0, 0, 0, 0, 0, 0, 0, 0, 0, 0, 0, 0, 0\n0, 0, 0, 0, 0, 0, 0, 0, 0, 0, 0, 0, 0, 0\n0, 0, 0, 0, 0, 86, 0, 0, 0, 0, 0, 0, 0]"] ;
16 -> 102 ;
103 [label="gini = 0.0\nsamples = 86\nvalue = [0, 0, 0, 0, 0, 0, 0, 0, 0, 0, 0, 0, 0, 0\n0, 0, 0, 0, 0, 0, 0, 0, 0, 0, 0, 0, 0, 0\n0, 0, 0, 0, 0, 0, 0, 0, 0, 0, 86, 0, 0]"] ;
15 -> 103 ;
104 [label="gini = 0.0\nsamples = 87\nvalue = [0, 0, 0, 0, 0, 87, 0, 0, 0, 0, 0, 0, 0, 0\n0, 0, 0, 0, 0, 0, 0, 0, 0, 0, 0, 0, 0, 0\n0, 0, 0, 0, 0, 0, 0, 0, 0, 0, 0, 0, 0]"] ;
14 -> 104 ;
105 [label="gini = 0.0\nsamples = 87\nvalue = [0, 0, 0, 0, 0, 0, 0, 0, 0, 0, 0, 0, 0, 0\n0, 0, 0, 0, 0, 0, 0, 0, 0, 0, 0, 0, 0, 0\n0, 0, 0, 0, 87, 0, 0, 0, 0, 0, 0, 0, 0]"] ;
13 -> 105 ;
106 [label="X[5] <= 0.5\ngini = 0.5\nsamples = 177\nvalue = [0, 0, 0, 0, 0, 0, 0, 0, 0, 0, 0, 0, 0, 0\n0, 0, 0, 88, 0, 0, 0, 0, 0, 0, 0, 0, 0, 0\n0, 0, 0, 0, 0, 0, 0, 0, 0, 89, 0, 0, 0]"] ;
12 -> 106 ;
107 [label="gini = 0.0\nsamples = 88\nvalue = [0, 0, 0, 0, 0, 0, 0, 0, 0, 0, 0, 0, 0, 0\n0, 0, 0, 88, 0, 0, 0, 0, 0, 0, 0, 0, 0, 0\n0, 0, 0, 0, 0, 0, 0, 0, 0, 0, 0, 0, 0]"] ;
106 -> 107 ;
108 [label="gini = 0.0\nsamples = 89\nvalue = [0, 0, 0, 0, 0, 0, 0, 0, 0, 0, 0, 0, 0, 0\n0, 0, 0, 0, 0, 0, 0, 0, 0, 0, 0, 0, 0, 0\n0, 0, 0, 0, 0, 0, 0, 0, 0, 89, 0, 0, 0]"] ;
106 -> 108 ;
109 [label="gini = 0.0\nsamples = 88\nvalue = [0, 0, 0, 0, 0, 0, 0, 0, 0, 0, 0, 0, 0, 0\n0, 0, 0, 0, 0, 88, 0, 0, 0, 0, 0, 0, 0, 0\n0, 0, 0, 0, 0, 0, 0, 0, 0, 0, 0, 0, 0]"] ;
11 -> 109 ;
110 [label="X[105] <= 0.5\ngini = 0.498\nsamples = 177\nvalue = [0, 0, 0, 0, 0, 0, 0, 0, 0, 0, 0, 0, 83, 0\n0, 0, 0, 0, 0, 0, 0, 0, 0, 0, 0, 0, 0, 0\n94, 0, 0, 0, 0, 0, 0, 0, 0, 0, 0, 0, 0]"] ;
10 -> 110 ;
111 [label="gini = 0.0\nsamples = 94\nvalue = [0, 0, 0, 0, 0, 0, 0, 0, 0, 0, 0, 0, 0, 0\n0, 0, 0, 0, 0, 0, 0, 0, 0, 0, 0, 0, 0, 0\n94, 0, 0, 0, 0, 0, 0, 0, 0, 0, 0, 0, 0]"] ;
110 -> 111 ;
112 [label="gini = 0.0\nsamples = 83\nvalue = [0, 0, 0, 0, 0, 0, 0, 0, 0, 0, 0, 0, 83, 0\n0, 0, 0, 0, 0, 0, 0, 0, 0, 0, 0, 0, 0, 0\n0, 0, 0, 0, 0, 0, 0, 0, 0, 0, 0, 0, 0]"] ;
110 -> 112 ;
113 [label="X[80] <= 0.5\ngini = 0.5\nsamples = 177\nvalue = [0, 0, 0, 0, 0, 0, 0, 0, 0, 0, 0, 0, 0, 0\n0, 0, 0, 0, 0, 0, 0, 0, 0, 0, 89, 0, 88, 0\n0, 0, 0, 0, 0, 0, 0, 0, 0, 0, 0, 0, 0]"] ;
9 -> 113 ;
114 [label="gini = 0.0\nsamples = 88\nvalue = [0, 0, 0, 0, 0, 0, 0, 0, 0, 0, 0, 0, 0, 0\n0, 0, 0, 0, 0, 0, 0, 0, 0, 0, 0, 0, 88, 0\n0, 0, 0, 0, 0, 0, 0, 0, 0, 0, 0, 0, 0]"] ;
113 -> 114 ;
115 [label="gini = 0.0\nsamples = 89\nvalue = [0, 0, 0, 0, 0, 0, 0, 0, 0, 0, 0, 0, 0, 0\n0, 0, 0, 0, 0, 0, 0, 0, 0, 0, 89, 0, 0, 0\n0, 0, 0, 0, 0, 0, 0, 0, 0, 0, 0, 0, 0]"] ;
113 -> 115 ;
116 [label="gini = 0.0\nsamples = 89\nvalue = [0, 0, 0, 0, 0, 0, 0, 0, 0, 0, 0, 0, 0, 0\n0, 0, 0, 0, 0, 0, 0, 0, 0, 0, 0, 0, 0, 0\n0, 0, 0, 0, 0, 0, 0, 89, 0, 0, 0, 0, 0]"] ;
8 -> 116 ;
117 [label="X[43] <= 0.5\ngini = 0.666\nsamples = 269\nvalue = [0, 0, 0, 0, 0, 0, 0, 0, 0, 0, 0, 84, 0, 0\n0, 0, 0, 0, 0, 0, 0, 0, 0, 0, 0, 0, 0, 0\n0, 90, 0, 0, 0, 0, 0, 0, 0, 0, 0, 0, 95]"] ;
7 -> 117 ;
118 [label="X[37] <= 0.5\ngini = 0.499\nsamples = 174\nvalue = [0, 0, 0, 0, 0, 0, 0, 0, 0, 0, 0, 84, 0, 0\n0, 0, 0, 0, 0, 0, 0, 0, 0, 0, 0, 0, 0, 0\n0, 90, 0, 0, 0, 0, 0, 0, 0, 0, 0, 0, 0]"] ;
117 -> 118 ;
119 [label="gini = 0.0\nsamples = 90\nvalue = [0, 0, 0, 0, 0, 0, 0, 0, 0, 0, 0, 0, 0, 0\n0, 0, 0, 0, 0, 0, 0, 0, 0, 0, 0, 0, 0, 0\n0, 90, 0, 0, 0, 0, 0, 0, 0, 0, 0, 0, 0]"] ;
118 -> 119 ;
120 [label="gini = 0.0\nsamples = 84\nvalue = [0, 0, 0, 0, 0, 0, 0, 0, 0, 0, 0, 84, 0, 0\n0, 0, 0, 0, 0, 0, 0, 0, 0, 0, 0, 0, 0, 0\n0, 0, 0, 0, 0, 0, 0, 0, 0, 0, 0, 0, 0]"] ;
118 -> 120 ;
121 [label="gini = 0.0\nsamples = 95\nvalue = [0, 0, 0, 0, 0, 0, 0, 0, 0, 0, 0, 0, 0, 0\n0, 0, 0, 0, 0, 0, 0, 0, 0, 0, 0, 0, 0, 0\n0, 0, 0, 0, 0, 0, 0, 0, 0, 0, 0, 0, 95]"] ;
117 -> 121 ;
122 [label="gini = 0.0\nsamples = 91\nvalue = [0, 0, 0, 0, 0, 0, 0, 0, 0, 0, 0, 0, 0, 91\n0, 0, 0, 0, 0, 0, 0, 0, 0, 0, 0, 0, 0, 0\n0, 0, 0, 0, 0, 0, 0, 0, 0, 0, 0, 0, 0]"] ;
6 -> 122 ;
123 [label="gini = 0.0\nsamples = 91\nvalue = [0, 0, 0, 0, 0, 0, 0, 0, 0, 0, 0, 0, 0, 0\n0, 0, 0, 0, 0, 0, 0, 0, 0, 0, 0, 0, 0, 0\n0, 0, 0, 0, 0, 0, 0, 0, 91, 0, 0, 0, 0]"] ;
5 -> 123 ;
124 [label="gini = 0.0\nsamples = 91\nvalue = [0, 0, 0, 0, 0, 0, 0, 0, 0, 0, 0, 0, 0, 0\n0, 0, 0, 0, 0, 0, 0, 0, 91, 0, 0, 0, 0, 0\n0, 0, 0, 0, 0, 0, 0, 0, 0, 0, 0, 0, 0]"] ;
4 -> 124 ;
125 [label="gini = 0.0\nsamples = 91\nvalue = [0, 0, 0, 0, 0, 0, 0, 0, 0, 0, 91, 0, 0, 0\n0, 0, 0, 0, 0, 0, 0, 0, 0, 0, 0, 0, 0, 0\n0, 0, 0, 0, 0, 0, 0, 0, 0, 0, 0, 0, 0]"] ;
3 -> 125 ;
126 [label="gini = 0.0\nsamples = 92\nvalue = [0, 0, 0, 0, 0, 0, 0, 0, 0, 0, 0, 0, 0, 0\n0, 0, 0, 0, 0, 0, 0, 0, 0, 0, 0, 92, 0, 0\n0, 0, 0, 0, 0, 0, 0, 0, 0, 0, 0, 0, 0]"] ;
2 -> 126 ;
127 [label="gini = 0.0\nsamples = 92\nvalue = [0, 0, 0, 0, 0, 0, 0, 0, 0, 0, 0, 0, 0, 0\n0, 0, 0, 0, 0, 0, 0, 0, 0, 0, 0, 0, 0, 0\n0, 0, 0, 0, 0, 0, 92, 0, 0, 0, 0, 0, 0]"] ;
1 -> 127 ;
128 [label="gini = 0.0\nsamples = 93\nvalue = [0, 0, 0, 0, 0, 0, 0, 0, 0, 0, 0, 0, 0, 0\n0, 0, 0, 0, 0, 0, 0, 0, 0, 0, 0, 0, 0, 0\n0, 0, 93, 0, 0, 0, 0, 0, 0, 0, 0, 0, 0]"] ;
0 -> 128 [labeldistance=2.5, labelangle=-45, headlabel="False"] ;
}
